Language model created by QuickLM on Sat Mar 11 17:01:37 EST 2017
Copyright (c) 1996-2010 Carnegie Mellon University and Alexander I. Rudnicky

The model is in standard ARPA format, designed by Doug Paul while he was at MITRE.

The code that was used to produce this language model is available in Open Source.
Please visit http://www.speech.cs.cmu.edu/tools/ for more information

The (fixed) discount mass is 0.5. The backoffs are computed using the ratio method.
This model based on a corpus of 4 sentences and 6 words

\data\
ngram 1=6
ngram 2=8
ngram 3=4

\1-grams:
-0.7782 </s> -0.3010
-0.7782 <s> -0.2218
-1.3802 AUTOPILOT -0.2218
-1.3802 DANCE -0.2218
-1.3802 SHADOW -0.2218
-1.3802 WEATCHER -0.2218

\2-grams:
-0.9031 <s> AUTOPILOT 0.0000
-0.9031 <s> DANCE 0.0000
-0.9031 <s> SHADOW 0.0000
-0.9031 <s> WEATCHER 0.0000
-0.3010 AUTOPILOT </s> -0.3010
-0.3010 DANCE </s> -0.3010
-0.3010 SHADOW </s> -0.3010
-0.3010 WEATCHER </s> -0.3010

\3-grams:
-0.3010 <s> AUTOPILOT </s>
-0.3010 <s> DANCE </s>
-0.3010 <s> SHADOW </s>
-0.3010 <s> WEATCHER </s>

\end\
